-0.225843344296
0.771104316603
1.59397018542
1.22844592751
0.787062045248
0.512209937466
1.70889792472
1.60448721176
0.772379983327
1.30161800359
-0.978959143235
-0.69404745019
-0.65034033747
0.322307043573
-0.228099714039
0.608622428024
-1.01953312574
-0.907094791308
-1.20843640166
1.5256244704
0.456967486755
0.280633617999
0.314257782948
0.116705311298
-1.14809423383
-0.549715266585
-0.981331675922
-0.656133065502
0.608588538586
-0.35985725681
0.393490117087
-0.0362453047722
-1.53688844398
-0.647120114821
0.112098593744
-1.00979220608
-1.34763505939
-0.603041785914
-1.41043923822
0.0190159093777
-2.75941335253
-1.47141210677
-0.459701917413
-0.137908685823
0.313514891112
-0.819986515731
0.515680529545
0.354938932793
-0.0810162127421
0.457808984229
-1.8448958692
0.758661282577
0.547416254863
0.487455855541
0.111723856821
0.30440565173
-1.4131937541
1.36244779178
-0.378845890884
0.39028795095
-0.336541712626
-0.334831567126
-0.64458390092
0.532071887623
-0.770003130161
0.0503819556972
-0.0669693529276
0.298831372797
-0.995957882523
-0.25902423116
0.149513643701
0.0262779693947
-0.917727308865
-1.12886570805
-0.144999650768
1.064067873
1.70080644996
1.03616037421
-1.33470430917
-1.1493976131
0.377650452229
-0.00136194486491
0.474658925643
-0.893600939493
0.608143025303
-0.452657554734
0.475001879865
-0.939622795871
1.09509736566
1.93022637366
-0.214034355831
-1.08257055894
-0.657919929028
0.443337930738
-0.433223270777
1.09516549713
-0.186862284115
-0.453128875155
-0.812759875226
0.29365356246
0.0891403177105
-0.463590309247
0.41933248243
-1.52666211968
0.106939237248
-0.54971145813
-0.327182546354
-2.58095851087
0.0883459515506
-1.47834457674
-0.351355733505
-0.523033691457
-0.0773904994246
0.165393969411
0.144305842541
0.473692024583
-1.78572266713
-0.635537757669
0.383923381615
0.508977013643
0.955665851262
1.80935069456
1.93926321942
0.352216873817
0.566173640346
-0.293665702768
-0.754872880201
-1.00230586674
0.388219511245
-0.61611730583
-0.406365793696
-1.52887132425
-0.0549014548606
-0.347501395895
1.63187319385
0.371696670296
-1.1251356333
-1.13261869721
-1.70324654238
0.339109566278
0.221649370991
-0.543185044674
-0.408431864208
0.159071181373
-0.488616519472
1.40080203341
-0.831341842063
-0.718398887579
-0.757129554895
-0.263410109658
-0.289491235063
0.0242177804874
-0.34864201491
-0.999780835547
-0.750236346926
1.26433570873
-0.913958950763
-0.739073717837
1.20591818235
0.237302564946
0.124731232589
1.92654057237
0.738110264254
-0.444614387964
0.268441606902
-0.137543012584
1.03260990557
1.03007552088
0.75463470796
1.15354967451
-0.114875385266
0.737319457703
-0.251974515576
0.69294136756
-0.370358708223
1.12943585171
-0.461507818659
0.787112733991
-1.2594631745
-0.0636526459915
0.774055796037
0.678270071304
0.12193972442
0.466056443541
0.29306610879
0.676606472267
-1.29808015415
0.514067301354
0.343834014103
0.674269249478
0.710298493753
-0.11854925901
0.259546701249
-0.244063559988
-0.57630650669
-0.699560992527
0.726499308572
-0.610769806329
1.19003952298
-0.810714253662
-0.66308619064
0.842393915469
-1.20339880744
-0.163059123581
0.543177170363
0.637342838203
0.330413353194
0.984483795369
0.612837552268
0.490221671241
-0.816462230343
0.282600010137
-0.573594587465
0.525367298882
0.71979839699
0.494523245288
0.876644230607
-0.704192033814
0.330352909282
0.432422295405
0.0207336020057
0.626193326757
0.574273163546
0.972642540302
0.768286655175
0.558993104407
-0.500174428863
0.596241522054
0.702217187683
0.500138607744
0.551432055542
-0.652567521076
0.568352321596
0.62341735622
0.0407856982438
-0.0728260725454
0.590453665983
0.898436014564
-0.527842386762
0.924870980626
0.937672120789
-0.05059862762
-0.498784563211
-1.09815264874
0.429844251183
0.777845270812
1.27303786474
1.01841316894
0.880040752858
-0.00178930795696
0.991574339619
0.24724338691
-1.62371027329
-0.0229707502152
-0.163524342415
0.530535942605
-0.946901209598
-0.088296150683
0.658876286871
0.307446019758
1.86376540417
-1.06235973208
0.285616174051
1.48229811796
-0.322641283757
-1.8634052802
0.250538989241
-0.274881372311
1.09547887828
2.20694988271
-0.808743145169
-1.10183315838
0.804677718335
-0.498325031382
-0.260195165769
-1.10239640658
0.294102475012
-0.229737825571
1.51515011854
0.228765090386
0.748285401756
0.0308477827634
0.420605544066
-1.90389671009
0.557364183638
-1.38236286866
-2.0430366799
-1.4180430205
0.383740144293
-0.0515457568846
-0.0516659597395
0.0438626055139
-0.0999328339729
0.850232394198
-0.250940336351
-0.0688038292668
-0.0633504953365
0.380057863671
-0.992682745166
-0.901334275611
0.521893665811
-1.60546566476
-1.12704166891
-0.142533677868
-0.305195295875
1.38941587936
1.68005980768
-1.42358932379
0.0809083720501
0.0801116372582
-0.956895073968
0.202706635326
-0.337797518874
-0.099056322327
1.07048329937
-0.258461697036
0.265722092419
-0.780096233474
0.545531735644
-1.94142756082
-0.903871922129
-0.573214717143
1.15949556683
1.55815116757
0.717959900173
-0.811732269012
-2.42366529331
-2.66310361817
-0.557870173958
-2.36817779159
-2.33789351816
-0.709743303397
-0.0178261096545
-0.454612176937
1.0335300621
0.313120758931
0.771126452311
0.248681799788
-0.249671291748
-0.731950633899
-0.20257500377
1.17353223563
0.245500609896
0.0442710216318
-0.159870132463
-0.313874096864
-1.30717942785
-0.566221215177
0.00445254820203
0.472337843349
0.538143997736
-0.487475276045
0.475026744942
-0.672851034977
-0.311486764723
0.923494202493
-0.318096002728
-0.218091407474
-0.86757882708
0.473369720874
-8.21737734924e-05
0.514725468087
-1.17707203804
0.0268555942546
1.10948167707
0.892521479444
0.449605195487
-0.423766015271
0.474250523504
1.2968063445
-0.520964133018
-0.637416005215
-0.691325209556
-0.531646142031
-0.240631275911
-0.255107046654
0.754336877936
-0.504412989731
0.256455650102
-0.307044837274
-0.774256780544
0.737267555678
-1.06767101696
-0.349644613139
-0.0341695995105
-0.46808805525
0.915619662624
1.04244810986
0.278911003996
0.294854155391
-0.756974750857
-0.254876777672
-0.801983120743
0.0165073932236
-0.538321405007
-0.197734574049
0.321797093457
0.314187503391
-0.788211785337
0.209198121838
0.629342741322
0.554550133911
-0.490629146719
-0.00124010746446
0.672871085438
-0.407564685778
-0.60973751765
0.32574513607
-0.518328328368
-0.501781678391
0.659645776978
-0.259389835373
0.725784023465
0.0692218549417
0.812355617473
0.443401398611
-0.622728244652
0.356042126839
0.948676201568
-0.313546633822
0.86365490064
0.272048574535
-0.399730925592
0.619977286009
0.968028358879
0.673089388554
0.895601498372
-0.749692571513
-0.829275060431
0.167821887017
-0.210783043096
0.405139895262
0.258591138381
0.0509613923948
0.404010138735
0.196345439994
0.254884503149
0.935226605604
0.212658403511
0.948942802446
0.717113290808
0.577680183373
0.508669870376
0.536624806489
-0.217452368801
1.31091118684
0.971552181919
0.251265637863
0.531786206113
0.301094317811
0.706849025637
0.249304309737
0.553107651406
-0.700136183737
0.180843720991
0.278276916135
0.470344053071
0.0606080251893
0.805614134476
0.216891204521
0.561759722762
1.0738490373
-0.726064792902
0.196918772834
0.562730468048
-0.429687982524
0.382791166537
0.542224032122
0.682366352446
-0.504736004646
0.194229547556
-0.162807981209
0.435822371336
-0.31045849718
0.782239984443
0.753067709792
0.326570996733
0.324795776525
-0.117040641335
0.756901247699
0.312666750229
1.19161150774
-0.749274281149
0.0174363611359
1.08573809263
-0.0501284944875
